digraph Tree {
node [shape=box, style="filled, rounded", color="black", fontname=helvetica] ;
edge [fontname=helvetica] ;
0 [label="sepal length (cm) <= 5.45\ngini = 0.67\nsamples = 95\nvalue = [48, 54, 48]\nclass = versicolor", fillcolor="#f3fdf8"] ;
1 [label="petal width (cm) <= 0.8\ngini = 0.19\nsamples = 30\nvalue = [43, 4, 1]\nclass = setosa", fillcolor="#e88f50"] ;
0 -> 1 [labeldistance=2.5, labelangle=45, headlabel="True"] ;
2 [label="gini = 0.0\nsamples = 26\nvalue = [43, 0, 0]\nclass = setosa", fillcolor="#e58139"] ;
1 -> 2 ;
3 [label="petal length (cm) <= 4.0\ngini = 0.32\nsamples = 4\nvalue = [0, 4, 1]\nclass = versicolor", fillcolor="#6aeca0"] ;
1 -> 3 ;
4 [label="gini = 0.0\nsamples = 3\nvalue = [0, 4, 0]\nclass = versicolor", fillcolor="#39e581"] ;
3 -> 4 ;
5 [label="gini = 0.0\nsamples = 1\nvalue = [0, 0, 1]\nclass = virginica", fillcolor="#8139e5"] ;
3 -> 5 ;
6 [label="petal length (cm) <= 4.85\ngini = 0.54\nsamples = 65\nvalue = [5, 50, 47]\nclass = versicolor", fillcolor="#f4fef8"] ;
0 -> 6 [labeldistance=2.5, labelangle=-45, headlabel="False"] ;
7 [label="petal width (cm) <= 0.7\ngini = 0.18\nsamples = 29\nvalue = [5, 46, 0]\nclass = versicolor", fillcolor="#4fe88f"] ;
6 -> 7 ;
8 [label="gini = 0.0\nsamples = 3\nvalue = [5, 0, 0]\nclass = setosa", fillcolor="#e58139"] ;
7 -> 8 ;
9 [label="gini = 0.0\nsamples = 26\nvalue = [0, 46, 0]\nclass = versicolor", fillcolor="#39e581"] ;
7 -> 9 ;
10 [label="petal length (cm) <= 5.15\ngini = 0.14\nsamples = 36\nvalue = [0, 4, 47]\nclass = virginica", fillcolor="#8c4ae7"] ;
6 -> 10 ;
11 [label="petal width (cm) <= 1.7\ngini = 0.36\nsamples = 11\nvalue = [0, 4, 13]\nclass = virginica", fillcolor="#a876ed"] ;
10 -> 11 ;
12 [label="petal length (cm) <= 4.95\ngini = 0.44\nsamples = 4\nvalue = [0, 4, 2]\nclass = versicolor", fillcolor="#9cf2c0"] ;
11 -> 12 ;
13 [label="gini = 0.0\nsamples = 2\nvalue = [0, 2, 0]\nclass = versicolor", fillcolor="#39e581"] ;
12 -> 13 ;
14 [label="sepal width (cm) <= 2.45\ngini = 0.5\nsamples = 2\nvalue = [0, 2, 2]\nclass = versicolor", fillcolor="#ffffff"] ;
12 -> 14 ;
15 [label="gini = 0.0\nsamples = 1\nvalue = [0, 0, 2]\nclass = virginica", fillcolor="#8139e5"] ;
14 -> 15 ;
16 [label="gini = 0.0\nsamples = 1\nvalue = [0, 2, 0]\nclass = versicolor", fillcolor="#39e581"] ;
14 -> 16 ;
17 [label="gini = 0.0\nsamples = 7\nvalue = [0, 0, 11]\nclass = virginica", fillcolor="#8139e5"] ;
11 -> 17 ;
18 [label="gini = 0.0\nsamples = 25\nvalue = [0, 0, 34]\nclass = virginica", fillcolor="#8139e5"] ;
10 -> 18 ;
}